34 128
34 -0.12839386 -0.31526694 0.17028292 0.17149657 0.037695352 -0.1700638 0.22520225 0.045873694 -0.09122145 0.045291886 -0.13225208 0.19305189 0.07096244 -0.1899327 -0.09807635 -0.15921023 -0.025767865 -0.11401838 0.07151335 0.073638745 0.15461203 -0.03818314 0.22438118 -0.014988744 -0.026896354 -0.0077999136 0.0052213445 -0.0044136574 0.026618581 0.22207265 -0.023771496 0.08672711 -0.09929106 0.1464004 -0.13806488 -0.11853396 0.24987237 0.07338671 -0.09241443 -0.167978 -0.26813132 0.08168304 0.15704381 0.15687086 -0.14421931 0.036598634 0.06594177 -0.07604814 -0.020635935 0.06570234 -0.076200806 0.15585917 0.036489606 -0.012861484 -0.08014277 -0.11143248 -0.11301382 0.049051404 -0.07624517 -0.03130653 0.09066374 -0.100502424 -0.07812234 0.10100056 -0.022967562 -0.19078772 -0.076811425 -0.0023521003 -0.07097578 -0.08542406 -0.023265157 0.01766264 -0.04945513 0.07174182 0.054340173 0.061908443 0.05131987 0.05234162 0.07009391 0.07247386 -0.065299936 -0.21982446 0.06716871 -0.17990342 -0.031184833 0.26373217 -0.057333533 -0.008317755 -0.0075625773 -0.064752564 0.040001057 0.13076796 0.05109761 -0.046300422 -0.05886773 0.20682281 -0.09707478 0.02617158 0.08442106 -0.06316874 -0.19951794 0.04438458 -0.1360551 -0.062482517 -0.019982794 0.113932416 0.24253912 0.12694252 -0.03841061 0.021859018 0.009490305 -0.04306514 0.012148969 0.043161232 0.011558988 -0.014251486 -0.089581765 0.1779687 -0.13444267 0.0073508746 -0.038680766 -0.11462042 0.029704213 -0.17808951 0.0035563624 0.079955645 -0.03567635 0.06271087
1 -0.05992847 -0.21033962 0.0812082 0.09102638 0.00023866155 -0.13923216 0.09647651 0.13033725 0.045586895 -0.0068144044 -0.046808966 0.1845745 0.08425205 -0.13110882 -0.011718347 -0.1386095 -0.04524755 -0.16428503 0.07837397 0.025645727 0.10005509 -0.06923399 0.14131218 -0.01993737 0.09005315 0.036379352 -0.016303495 -0.008752607 0.079018496 0.11833402 -0.027652355 0.045285188 -0.08130216 0.07860263 -0.06592689 -0.12374131 0.16762677 0.039284553 -0.05319673 -0.13499033 -0.15891099 -0.061553814 0.1702274 0.20418532 -0.18129346 -0.026602184 0.039082028 -0.050785527 0.073691264 0.09268049 -0.23871633 0.12045036 0.005955926 0.052119814 -0.071928546 -0.14402711 -0.08330293 0.12865496 -0.07256101 -0.12274168 0.20675743 -0.16986418 0.025880538 0.12405591 -0.1241675 0.0053361617 -0.09003993 0.083451346 -0.08280742 -0.13881503 -0.11433831 0.048125166 -0.053526934 -0.012160421 0.1610606 0.09815289 0.09142301 0.043102063 0.041656744 -0.083120905 -0.098669276 -0.15460046 0.06672629 -0.06724732 -0.06125856 0.07439087 0.08765858 -0.029263241 0.11604221 -0.011151694 0.07354846 0.057962395 0.09009587 -0.047394488 -0.15267842 0.13280395 -0.024292149 -0.12977241 0.110582784 0.08839574 -0.16773608 0.061047792 -0.14756575 -0.05103863 -0.11049578 0.12644152 0.18345246 0.19091411 -0.052083377 -0.0047626146 -0.024144491 0.03711083 0.056729168 0.093368925 -0.08072135 0.0017721113 -0.035120055 0.20868775 -0.18943013 -0.06289615 -0.007569607 -0.049254447 0.06933964 -0.23547058 -0.19845746 -0.029616922 0.04019739 0.17876898
33 -0.11110755 -0.28774297 0.14776947 0.15059562 0.029334946 -0.16127054 0.19052212 0.06298173 -0.057493143 0.03222436 -0.10499247 0.1848433 0.07072473 -0.17330924 -0.071980804 -0.14336342 -0.033046726 -0.11626158 0.06300495 0.05933082 0.14011192 -0.040820263 0.19649531 -0.015131526 -0.0078314375 0.0035348558 -0.0043988763 -0.0046290765 0.038446475 0.19093338 -0.025428545 0.07875024 -0.09120778 0.13313214 -0.12643404 -0.12366508 0.22382948 0.06399346 -0.08629925 -0.15548734 -0.23944682 0.04773632 0.15447628 0.15921526 -0.14986177 0.027841158 0.053893734 -0.06881017 -0.005628809 0.066892 -0.11292398 0.14858158 0.03002579 -0.0051979143 -0.078414485 -0.11321927 -0.10734054 0.06515316 -0.071651615 -0.046882145 0.11967199 -0.118742615 -0.052025016 0.105610386 -0.044025525 -0.14574167 -0.07310719 0.016614027 -0.07289906 -0.09475983 -0.03946032 0.024979904 -0.047828335 0.05257435 0.07739847 0.074373186 0.062501416 0.04833965 0.06388667 0.03286891 -0.066790074 -0.20187487 0.06549733 -0.15423584 -0.039117288 0.21959084 -0.027678061 -0.014940024 0.023111846 -0.053010825 0.05397421 0.11753376 0.060173277 -0.048386592 -0.0750935 0.19032246 -0.08244851 -0.0114033595 0.09587032 -0.028228417 -0.19361049 0.042540867 -0.14224668 -0.05249833 -0.03563654 0.11311373 0.2291312 0.14453295 -0.037412386 0.011916511 -0.0019695545 -0.02510567 0.023148859 0.049771775 -0.0069072875 -0.0075312625 -0.07877453 0.18020245 -0.14952336 -0.01466881 -0.02821307 -0.10147603 0.04050374 -0.19012004 -0.039684787 0.050752148 -0.02368332 0.08705297
3 -0.08649318 -0.24302928 0.11942322 0.122843035 0.014525706 -0.14558975 0.14914048 0.08815982 -0.025268445 0.016405376 -0.08179118 0.17997065 0.073172726 -0.16030547 -0.0491512 -0.14497437 -0.03517552 -0.1351344 0.06921362 0.04319297 0.11716961 -0.051594373 0.17107591 -0.014486732 0.038027458 0.017781021 -0.005585511 -0.0036920195 0.059617713 0.16416126 -0.02564331 0.057272837 -0.091613345 0.11217396 -0.09683455 -0.11878141 0.19866033 0.0532924 -0.068499655 -0.14173758 -0.1989965 0.0009253209 0.15739343 0.1786875 -0.15728721 0.0039553177 0.050973583 -0.06398649 0.024383146 0.07790327 -0.15622029 0.12542897 0.016541388 0.02237473 -0.076127425 -0.12436218 -0.09572209 0.08881445 -0.07272373 -0.07394301 0.14693712 -0.12990493 -0.019379897 0.11101681 -0.07091079 -0.08216782 -0.077641524 0.044877186 -0.07291406 -0.11261034 -0.06767367 0.035930883 -0.051431697 0.028602999 0.112801075 0.08185896 0.0777266 0.046726257 0.058293905 -0.010530058 -0.08112429 -0.17637053 0.06250309 -0.11763566 -0.041949272 0.16162749 0.020266447 -0.020407105 0.05522925 -0.0357419 0.057971418 0.091604024 0.06671214 -0.04940934 -0.11216276 0.16717441 -0.06290979 -0.054116834 0.099539325 0.018440425 -0.18299896 0.04974567 -0.14496124 -0.05356201 -0.06786795 0.12208562 0.2048095 0.16217549 -0.04135129 0.003034563 -0.006374005 0.0021192252 0.03534357 0.06909163 -0.03669029 -0.0021826862 -0.06370847 0.19273469 -0.16101113 -0.02876914 -0.023687122 -0.08402188 0.050542995 -0.21117578 -0.10414935 0.020565214 0.010417886 0.12464141
2 -0.067997076 -0.23003699 0.09949274 0.10688078 0.0081593655 -0.14257345 0.12456549 0.110443704 -0.0013040141 0.0075771664 -0.067272365 0.18947537 0.08453505 -0.14846236 -0.03225263 -0.14304024 -0.046637427 -0.14196254 0.074277334 0.03689989 0.11395718 -0.057820674 0.16507226 -0.023510277 0.05017139 0.030151293 -0.013184145 -0.0056783906 0.074645706 0.14676964 -0.022000821 0.051461004 -0.09172248 0.10767869 -0.08923987 -0.11844515 0.18960227 0.04039947 -0.06128132 -0.1438807 -0.18040344 -0.021907901 0.16641615 0.19037156 -0.17141269 -0.009582834 0.037856556 -0.06002894 0.05034294 0.079521395 -0.20141071 0.12133147 0.016033009 0.040594187 -0.08101023 -0.13212064 -0.08757462 0.11538505 -0.07627401 -0.09447916 0.17776898 -0.14876369 -0.0029158215 0.11265789 -0.10001328 -0.040460344 -0.092076816 0.05932064 -0.08410678 -0.12488704 -0.09614089 0.044135746 -0.04810265 0.008918204 0.13581702 0.10338375 0.08918521 0.04718511 0.054503 -0.041856565 -0.0937093 -0.17635742 0.06303 -0.09568765 -0.047362406 0.13328137 0.04992125 -0.0282501 0.09136474 -0.029182708 0.069820985 0.082197115 0.07707379 -0.059896506 -0.13344982 0.15613474 -0.049896084 -0.09220002 0.1027861 0.050739583 -0.1782849 0.050879646 -0.14469346 -0.056319017 -0.0891259 0.12217076 0.20958696 0.1870854 -0.054950774 0.002605374 -0.019656213 0.017637251 0.04908289 0.08113044 -0.06041331 -0.003709865 -0.05298986 0.20647228 -0.18731514 -0.04914192 -0.017307304 -0.07623443 0.06368995 -0.23087431 -0.14137462 -0.0010507933 0.027601968 0.15100665
32 -0.11827285 -0.29634592 0.14524172 0.15356015 0.025488619 -0.16131403 0.2027335 0.051593993 -0.0652723 0.03433557 -0.1121746 0.19058546 0.06968235 -0.17486763 -0.080135435 -0.1464581 -0.033509675 -0.1244126 0.058960743 0.06517297 0.14209327 -0.03740298 0.19209388 -0.010318995 -0.014808548 3.8753366e-05 -0.007504604 -0.0025665893 0.03555354 0.18920551 -0.030493295 0.0791408 -0.08357796 0.13242383 -0.13658045 -0.12541169 0.23867258 0.07419567 -0.08986928 -0.17096874 -0.25138322 0.0546364 0.15008584 0.15828313 -0.15305662 0.031227617 0.06019754 -0.061739363 -0.012098335 0.058056146 -0.106741175 0.15427598 0.027907485 -0.009882791 -0.077241845 -0.11375445 -0.10723302 0.054069255 -0.07603656 -0.04457575 0.11481378 -0.11570583 -0.05320148 0.11339417 -0.049795803 -0.15994576 -0.080100186 0.025979303 -0.07765842 -0.10314846 -0.042309023 0.02992636 -0.05011155 0.051205073 0.071529575 0.071607806 0.060000405 0.05060434 0.062388282 0.041584533 -0.06807806 -0.20969674 0.07461401 -0.16236997 -0.03947361 0.2345472 -0.03243823 -0.008776859 0.018173916 -0.062323257 0.055077173 0.12479755 0.06454431 -0.0513352 -0.067366436 0.19467261 -0.08127008 -0.0029743048 0.08582228 -0.04201395 -0.19353995 0.04419719 -0.15061775 -0.058049332 -0.026529055 0.12453781 0.23475163 0.1381785 -0.03651161 0.017282894 0.0013573254 -0.031943224 0.02179863 0.0527821 -0.0028117837 -0.0061908285 -0.08255685 0.18581396 -0.13496657 -0.013175167 -0.032859515 -0.10818181 0.03247144 -0.19117925 -0.026305962 0.053788792 -0.03592273 0.09089403
4 -0.06653839 -0.22516999 0.09408985 0.10690228 0.0063713044 -0.15033494 0.111819886 0.12755017 0.025674159 -0.0009526027 -0.05594579 0.19642511 0.089976296 -0.14827485 -0.022101063 -0.14786868 -0.046675425 -0.16567391 0.08073115 0.036445145 0.114817806 -0.068972446 0.15720224 -0.02437098 0.07849365 0.034440998 -0.017354485 -0.007244522 0.08162348 0.13930658 -0.02718643 0.048380036 -0.09069242 0.09402206 -0.08193536 -0.12921412 0.1917538 0.047595177 -0.060217995 -0.14234656 -0.17639384 -0.04721427 0.17869164 0.21166123 -0.18255448 -0.01950944 0.04146277 -0.061113656 0.060553487 0.09035421 -0.22653733 0.124201246 0.012742733 0.04772748 -0.08086543 -0.14479305 -0.08924292 0.12658253 -0.07362413 -0.11910269 0.2076235 -0.17105804 0.015964115 0.12678157 -0.111910656 -0.015154976 -0.098191455 0.075175054 -0.08131046 -0.13869116 -0.10887794 0.05000114 -0.054652207 -0.0047343303 0.16074437 0.10217835 0.09518086 0.050926168 0.047308717 -0.062233984 -0.09783341 -0.17098574 0.06733195 -0.08122968 -0.055486985 0.1036529 0.07741607 -0.032117132 0.10793088 -0.017260775 0.070636 0.06768124 0.081920944 -0.05420078 -0.14776024 0.150235 -0.04146869 -0.11656211 0.11224567 0.07071709 -0.18208884 0.06084325 -0.14973971 -0.049699873 -0.1091032 0.1300893 0.19787467 0.19437255 -0.054299712 -0.003974394 -0.017693555 0.02807416 0.053489357 0.09279199 -0.07330735 0.0027674206 -0.048504196 0.21608463 -0.19462712 -0.05751412 -0.010046114 -0.06322362 0.06733935 -0.24679779 -0.18328927 -0.015326371 0.039511967 0.17465064
14 -0.08551021 -0.25027558 0.11530808 0.116407685 0.013064667 -0.14933452 0.13907833 0.0967242 -0.006501334 0.0143021485 -0.0793341 0.19265766 0.07882383 -0.15359087 -0.04022821 -0.14572378 -0.04082584 -0.14870672 0.07556917 0.0415636 0.12419779 -0.054399874 0.17079274 -0.015524349 0.047188655 0.024644086 -0.006895339 -0.0043456345 0.059202775 0.1590909 -0.023746606 0.06115442 -0.090266585 0.108807765 -0.0915028 -0.12563686 0.1997019 0.053974256 -0.07054336 -0.15005706 -0.20369586 -0.009782927 0.167361 0.19143544 -0.1718858 -0.00015806624 0.04932596 -0.057549346 0.039226066 0.08420667 -0.18672605 0.13277876 0.016163051 0.029284503 -0.07458301 -0.13406752 -0.09663568 0.102816276 -0.07730737 -0.09316922 0.16878992 -0.14991932 -0.004319788 0.11461947 -0.09375318 -0.061722428 -0.08485559 0.052748006 -0.07972708 -0.12396662 -0.08719645 0.043253656 -0.0575858 0.020764627 0.13103192 0.09155427 0.08100272 0.048061796 0.052207123 -0.03163343 -0.08924419 -0.17534213 0.06993242 -0.10444251 -0.053213373 0.14544904 0.03601745 -0.024081664 0.07571366 -0.032349274 0.06290313 0.08340627 0.07710419 -0.051296365 -0.12195073 0.16477202 -0.053915992 -0.07013239 0.10474208 0.035519004 -0.18370281 0.05463649 -0.14808913 -0.05076135 -0.08216189 0.12564562 0.2071005 0.17403015 -0.04925809 0.0012410241 -0.016825335 0.007333544 0.037720285 0.07623313 -0.045685835 -0.0033053858 -0.058858264 0.19615944 -0.17076318 -0.03676049 -0.01819509 -0.07707644 0.055578656 -0.22214237 -0.12497927 0.0067854975 0.010452171 0.13917732
24 -0.11061443 -0.2833041 0.14896215 0.15173301 0.025782228 -0.15749195 0.19173734 0.057672255 -0.052042447 0.030678634 -0.101554714 0.18329711 0.0710783 -0.17080563 -0.07513292 -0.14834554 -0.035532933 -0.12819225 0.066440426 0.059091933 0.1381758 -0.04154223 0.19258028 -0.004751044 -0.0016184179 0.005583992 -0.007262968 -0.009887587 0.03334215 0.1876169 -0.032382037 0.077906564 -0.0874936 0.11753589 -0.119774744 -0.12064397 0.22722283 0.064613655 -0.08313754 -0.16084959 -0.23358786 0.048671126 0.148113 0.1584279 -0.14667763 0.02826668 0.054151963 -0.057385445 -0.0046436763 0.060872864 -0.103248924 0.14783509 0.02116284 -0.0034803608 -0.06383323 -0.10715985 -0.0980607 0.057035808 -0.07352221 -0.0487343 0.11087641 -0.11339508 -0.042397134 0.1060167 -0.053191405 -0.14766683 -0.07719224 0.027297933 -0.07807 -0.09832753 -0.039308302 0.028426766 -0.055327475 0.047999322 0.07743715 0.06487351 0.05377944 0.043532684 0.055641524 0.036537316 -0.062060725 -0.192985 0.06894799 -0.14832129 -0.0430724 0.20766921 -0.027722165 -0.0049091186 0.023521584 -0.051711477 0.04878437 0.11426034 0.06482393 -0.043660242 -0.070140466 0.18756752 -0.06979175 -0.006047249 0.085836716 -0.029603364 -0.18590006 0.051651113 -0.1372001 -0.052309643 -0.035254885 0.11815455 0.21887067 0.1362529 -0.032983504 0.015571104 0.0054030055 -0.02582508 0.019922812 0.049217187 -0.012724808 -0.008830941 -0.07609624 0.17578521 -0.13271321 -0.0076229987 -0.027534105 -0.09962318 0.035126466 -0.18753426 -0.037135422 0.053044736 -0.025860792 0.09210563
8 -0.07666573 -0.24461567 0.109790385 0.115833 0.007424256 -0.14929251 0.13476571 0.10877035 0.00022989472 0.013788171 -0.07309323 0.19091706 0.08109138 -0.15193701 -0.031881444 -0.1468013 -0.041462835 -0.14590709 0.07924189 0.042711243 0.11625277 -0.059263363 0.16623846 -0.026210213 0.05362389 0.032130558 -0.010659643 -0.002855834 0.06697481 0.15359694 -0.02550055 0.057687774 -0.089035794 0.10599988 -0.08924072 -0.12348214 0.19650804 0.0461337 -0.06152497 -0.13738923 -0.18868059 -0.020139165 0.16219346 0.1937814 -0.16782628 -0.0038165972 0.040725663 -0.060024407 0.04154942 0.084460475 -0.19596328 0.12249691 0.020828638 0.03634092 -0.07957665 -0.1303106 -0.09386765 0.10432402 -0.07366748 -0.09764512 0.17041467 -0.15030938 -0.003736841 0.1136986 -0.0874377 -0.0492601 -0.08078316 0.053581268 -0.07474124 -0.119984135 -0.090744086 0.039036833 -0.050885774 0.010543899 0.1291411 0.093292035 0.07898982 0.045803983 0.050493788 -0.03657332 -0.08289995 -0.17343108 0.06059305 -0.094328724 -0.05268748 0.1339653 0.049406864 -0.024866063 0.08090171 -0.028966112 0.065207735 0.07450637 0.071454205 -0.05251059 -0.12525664 0.14679728 -0.048599966 -0.087733604 0.09687858 0.039779242 -0.17044036 0.047015186 -0.14393172 -0.051314343 -0.080276296 0.113397874 0.19740856 0.1663076 -0.04939014 -0.0018068567 -0.01984314 0.016459584 0.046045143 0.07810903 -0.05754833 0.00083207665 -0.055600237 0.19543342 -0.17637427 -0.044740647 -0.01801495 -0.07331605 0.061851878 -0.21580471 -0.13289487 -0.003039472 0.02322376 0.13960686
9 -0.095050946 -0.2611617 0.1224801 0.13158023 0.017270729 -0.1494422 0.16351224 0.08026797 -0.024860663 0.019046143 -0.088346936 0.1888689 0.073234186 -0.16220874 -0.05536097 -0.14640738 -0.039969202 -0.13335665 0.06764193 0.052169777 0.12387089 -0.047447935 0.18449473 -0.016836887 0.024093019 0.014779331 -0.009798697 -0.013167765 0.0458936 0.17183952 -0.024227068 0.07041401 -0.090101354 0.1085926 -0.09948735 -0.12195875 0.21086189 0.0568879 -0.080232926 -0.14785247 -0.2174507 0.013194746 0.15770322 0.17545316 -0.15805681 0.010664726 0.05267902 -0.06351373 0.01601134 0.06957918 -0.14811662 0.13778472 0.019307194 0.011523017 -0.065581754 -0.12277132 -0.09845502 0.076672636 -0.071253106 -0.073011756 0.13973048 -0.12774406 -0.026774628 0.11061571 -0.06507911 -0.102562375 -0.07841694 0.03954204 -0.07676935 -0.11011899 -0.060775787 0.03685138 -0.050492384 0.03042102 0.107523814 0.07559603 0.0656002 0.051965695 0.05082627 0.0041703004 -0.07480699 -0.1872945 0.06395458 -0.13105878 -0.04737846 0.17588179 0.008278643 -0.016862636 0.045097418 -0.0391371 0.059481192 0.09630581 0.07392744 -0.04297028 -0.10140454 0.17061363 -0.060636133 -0.04393823 0.09704131 0.0069641424 -0.18927893 0.04816696 -0.14867353 -0.054702796 -0.06028655 0.11892192 0.21113037 0.16098666 -0.04385243 0.004023824 -0.0030673242 -0.003692981 0.03301646 0.060176473 -0.029905228 -0.006054459 -0.07117666 0.19392021 -0.16116203 -0.020856047 -0.025525358 -0.08775997 0.047814686 -0.20734344 -0.09176419 0.032904334 -0.001694789 0.11922329
30 -0.109103665 -0.30419055 0.14887415 0.16129187 0.020754276 -0.16480786 0.20157307 0.06958547 -0.05401452 0.03237761 -0.11410538 0.19930801 0.07451619 -0.18136501 -0.076719396 -0.1615932 -0.03541587 -0.1370612 0.07082803 0.06731067 0.14565767 -0.05263978 0.21074392 -0.018405203 0.008039536 0.004718674 -0.0012472733 -0.007858496 0.03950683 0.2015727 -0.0302177 0.07526834 -0.09415895 0.12863603 -0.12678127 -0.12412462 0.23412421 0.069422886 -0.085199505 -0.17042099 -0.24335337 0.042229183 0.16520873 0.178263 -0.15661895 0.023909146 0.058681946 -0.07316831 0.001992232 0.07355698 -0.12531215 0.15202765 0.030514522 -0.004561026 -0.07118655 -0.1187893 -0.111542 0.069161 -0.07207383 -0.057329208 0.12703586 -0.12564106 -0.040520787 0.11077863 -0.047836307 -0.14288715 -0.08500943 0.025654903 -0.07759436 -0.10986933 -0.046964515 0.028475503 -0.05253054 0.046977557 0.08840276 0.0716455 0.0654235 0.05484076 0.06144146 0.032695945 -0.0794536 -0.21082754 0.06606223 -0.15311144 -0.041900616 0.21926849 -0.019538391 -0.012728157 0.026595 -0.05074115 0.058246575 0.111112215 0.06535684 -0.046612322 -0.083529316 0.19443698 -0.08077083 -0.016801573 0.097062744 -0.02437863 -0.19244508 0.051356986 -0.14926946 -0.06455728 -0.04721896 0.12069135 0.23488717 0.15464465 -0.044541903 0.011324192 -0.0022889862 -0.024219744 0.021696413 0.053309977 -0.010851583 -0.009165661 -0.08264995 0.19220522 -0.15921919 -0.010899905 -0.033086196 -0.0983951 0.043993086 -0.20259756 -0.054331996 0.051091585 -0.0102504445 0.10219878
28 -0.1002323 -0.27193546 0.13316864 0.13487568 0.018019242 -0.15160754 0.16673623 0.08170589 -0.025438279 0.017989358 -0.085388966 0.19228502 0.074299365 -0.1568521 -0.05641753 -0.14784388 -0.039987125 -0.14348592 0.07322577 0.052531302 0.124524005 -0.052226644 0.17889632 -0.014128309 0.025354935 0.016551826 -0.013853306 -0.0075388504 0.053042337 0.16782229 -0.028840138 0.070949376 -0.0840694 0.11369095 -0.10534073 -0.1275863 0.21302429 0.060865898 -0.07372314 -0.15221322 -0.21564086 0.008817766 0.16155706 0.17879744 -0.16445813 0.008904753 0.047298416 -0.061482556 0.01658097 0.07229604 -0.15683338 0.14104432 0.021960976 0.009696233 -0.06684245 -0.12510207 -0.100852214 0.07847598 -0.07645083 -0.07409323 0.14540574 -0.136022 -0.018885521 0.115631655 -0.073652804 -0.100057475 -0.083377235 0.046477474 -0.08237725 -0.11944591 -0.06751761 0.037400644 -0.0575951 0.025735894 0.1069359 0.08005962 0.069189 0.05065676 0.0487189 -0.0017644188 -0.07884336 -0.19030388 0.070844695 -0.12519266 -0.0495789 0.17539595 0.013217846 -0.013871793 0.053572014 -0.039373927 0.060845476 0.09845064 0.07183737 -0.049284685 -0.09916783 0.17174198 -0.060109857 -0.046149764 0.09793282 0.006033336 -0.18531883 0.05626309 -0.1500922 -0.056672484 -0.05880995 0.123690955 0.21710335 0.16207433 -0.03980624 0.0029451735 -0.005717414 -0.0029447856 0.030160394 0.06335791 -0.0320601 -0.005412373 -0.06747699 0.19228122 -0.16083953 -0.030408947 -0.021787224 -0.08758947 0.049874764 -0.2064051 -0.098403744 0.022437675 -0.0022187904 0.12328433
6 -0.043406975 -0.19994028 0.057708338 0.091106325 -0.009680074 -0.1319764 0.080374956 0.14975207 0.09100572 -0.02217358 -0.021658385 0.18942156 0.079140745 -0.11317454 0.017144319 -0.13631958 -0.05269479 -0.1947273 0.07637804 0.01857643 0.08721967 -0.08651669 0.11793169 -0.022233201 0.13393533 0.03304001 -0.02872483 -0.02830505 0.078811154 0.0987852 -0.023917336 0.03235656 -0.06645556 0.04544168 -0.04376213 -0.12553267 0.15700217 0.0478159 -0.05800361 -0.13389139 -0.1397683 -0.088179655 0.1781541 0.21244104 -0.19955425 -0.03452926 0.045557104 -0.04866176 0.09973651 0.11071964 -0.2832081 0.13127847 -0.0038322338 0.054752868 -0.05317711 -0.16551478 -0.08256958 0.14015444 -0.058580935 -0.16332613 0.24782477 -0.193616 0.0652162 0.14302363 -0.1543004 0.03757471 -0.10496096 0.110963926 -0.08716651 -0.17119169 -0.13913415 0.06122755 -0.077336445 -0.028733704 0.20540476 0.10569805 0.09825178 0.05337665 0.026479531 -0.12125848 -0.11389986 -0.12980603 0.07805607 -0.035998207 -0.07076972 0.02057349 0.13360925 -0.030738302 0.14138818 0.0036650773 0.08462439 0.03894764 0.112320445 -0.03250926 -0.17558989 0.12690267 -0.000601609 -0.17097947 0.12729967 0.1208753 -0.16036363 0.07363396 -0.16528417 -0.0527442 -0.14554912 0.13407463 0.168722 0.20926847 -0.04738986 -0.013124494 -0.026569877 0.0643169 0.060759135 0.10070854 -0.10021577 0.016318426 -0.022643264 0.21674871 -0.20182222 -0.075341456 0.003343806 -0.032890804 0.09080289 -0.2654397 -0.26874316 -0.053104896 0.061426383 0.21114698
7 -0.0335416 -0.18226568 0.04566421 0.07662 -0.014544051 -0.123958945 0.06632841 0.15189444 0.09879321 -0.025717366 -0.018548584 0.18640064 0.0817251 -0.10909067 0.022811454 -0.13058418 -0.05177746 -0.19053327 0.07214454 0.015213804 0.08591148 -0.08611573 0.11579863 -0.017736971 0.13775502 0.036254518 -0.03394628 -0.025172088 0.0813623 0.08786383 -0.02063022 0.035335857 -0.07136646 0.040578876 -0.04141339 -0.123732306 0.14637741 0.035284266 -0.051617227 -0.12581632 -0.13047215 -0.09637435 0.17414661 0.21582866 -0.19362849 -0.03830159 0.04191894 -0.04312235 0.103132114 0.1058686 -0.28639826 0.12155064 -0.0025344628 0.06419933 -0.058476105 -0.15771908 -0.07522365 0.14179882 -0.057140242 -0.15699832 0.24519292 -0.19183698 0.06822391 0.13929565 -0.15629782 0.058265418 -0.09857751 0.11505029 -0.08153259 -0.16723694 -0.14456761 0.06462922 -0.07383505 -0.036469046 0.20477262 0.107667394 0.095926784 0.0485176 0.024031378 -0.13080305 -0.107974954 -0.11924629 0.07105839 -0.021614714 -0.07350313 0.0074442253 0.1345221 -0.029893013 0.14458573 0.010241105 0.08354468 0.03036519 0.10950652 -0.035961024 -0.17713346 0.11638395 0.0073537934 -0.17681003 0.11588554 0.1298803 -0.15390956 0.072827764 -0.15886828 -0.04987793 -0.14581008 0.12193697 0.15323171 0.20137408 -0.045827635 -0.01215147 -0.027749542 0.07087372 0.060979176 0.09692549 -0.106297426 0.011985304 -0.019628802 0.20929864 -0.20058867 -0.07456196 0.0029364836 -0.02161445 0.090543516 -0.25225624 -0.27043277 -0.06269497 0.06620088 0.21651284
20 -0.09336881 -0.26138166 0.12477457 0.13137054 0.012069956 -0.1548992 0.16225179 0.08500501 -0.030160878 0.018721966 -0.090013295 0.18581942 0.08040268 -0.15990622 -0.054708287 -0.14722298 -0.04301361 -0.1350533 0.069992885 0.04775524 0.12724169 -0.053447068 0.18281235 -0.01657292 0.029776188 0.02097987 -0.0029100394 -0.007408378 0.054889236 0.16532049 -0.028877428 0.06474647 -0.08820713 0.11373906 -0.10022908 -0.11845945 0.21101004 0.053710938 -0.076668255 -0.15487051 -0.21572971 0.009567461 0.15644905 0.17670862 -0.15830442 0.0077338163 0.053143494 -0.06111789 0.023440782 0.07032728 -0.16025124 0.13409199 0.023669979 0.012360638 -0.07308301 -0.12329369 -0.097272724 0.079902306 -0.077517495 -0.072958715 0.15081444 -0.13061842 -0.020521851 0.11179501 -0.073093995 -0.0948652 -0.082486115 0.045497537 -0.08114024 -0.10943474 -0.06996116 0.037220303 -0.05310242 0.029159674 0.10822293 0.085485816 0.07468249 0.04925896 0.05810694 -0.00016516668 -0.07898605 -0.19175884 0.06737062 -0.1299626 -0.042581912 0.17795205 0.010981351 -0.017530084 0.051857002 -0.0387324 0.0614518 0.098396435 0.07130945 -0.053136304 -0.104783826 0.17252545 -0.060325228 -0.04983959 0.094438866 0.013714655 -0.18786944 0.04778435 -0.15051998 -0.052083164 -0.06441816 0.124798484 0.21316434 0.16399851 -0.040106677 0.008388947 -0.010852748 -0.00017169653 0.03403909 0.06818421 -0.035548147 -0.005842388 -0.06338858 0.1957527 -0.16264454 -0.026795432 -0.023833798 -0.08305812 0.049481783 -0.21369386 -0.093265474 0.02650544 -0.0019698765 0.1231859
11 -0.060252745 -0.21379659 0.07689617 0.09898868 0.00023110505 -0.13473162 0.098456204 0.12951112 0.057768594 -0.014479716 -0.041350074 0.18275455 0.07309034 -0.118687086 -0.0017387914 -0.13755271 -0.04689262 -0.17049497 0.07191793 0.024619974 0.097531386 -0.07317473 0.1361633 -0.01744754 0.09636514 0.026155604 -0.024791451 -0.0192662 0.06558041 0.11062352 -0.022699613 0.04190817 -0.069414295 0.058267865 -0.056111626 -0.11529435 0.16466145 0.045855254 -0.05716884 -0.1239213 -0.14757097 -0.057563562 0.1658398 0.19394092 -0.17534338 -0.020733722 0.04651885 -0.045653008 0.069364615 0.09484928 -0.2305539 0.12366755 0.004979475 0.041400407 -0.057120107 -0.14689371 -0.081361175 0.12082055 -0.06341865 -0.12606494 0.20228346 -0.16796663 0.04070557 0.12770475 -0.12497725 0.004232811 -0.093132 0.08550718 -0.07570553 -0.14695518 -0.11154133 0.05012464 -0.06623159 -0.015337458 0.16868298 0.09347281 0.08510397 0.043568444 0.029503483 -0.08516083 -0.093789846 -0.13736269 0.06736916 -0.05923921 -0.06585882 0.06218002 0.095515944 -0.024490604 0.11147715 -0.006813906 0.07004957 0.048535712 0.0945371 -0.032711845 -0.14609018 0.12831502 -0.0142685445 -0.1278285 0.10849794 0.09002371 -0.15432464 0.06638167 -0.15034124 -0.050144196 -0.114578106 0.11790053 0.17167951 0.17870058 -0.043267664 -0.008756339 -0.021318356 0.0455906 0.04767828 0.081585 -0.07765913 0.0056876815 -0.035826743 0.20263748 -0.1824997 -0.05976071 -0.003390944 -0.045137197 0.07720236 -0.23493047 -0.2073932 -0.03288079 0.038872283 0.17821544
5 -0.06338997 -0.22451816 0.07901471 0.10311349 0.002652844 -0.14005409 0.11336764 0.116418384 0.051375274 -0.0089472905 -0.043992635 0.18899627 0.07391238 -0.12596035 -0.009784998 -0.14117059 -0.048581626 -0.17488728 0.07162242 0.03506276 0.10511581 -0.06834332 0.13839497 -0.013057009 0.091419436 0.024100505 -0.023360353 -0.021793257 0.06493117 0.120967895 -0.027853776 0.047218658 -0.07666656 0.07025408 -0.06639896 -0.12719408 0.17620169 0.0512986 -0.061993275 -0.13646816 -0.16268896 -0.05054176 0.16395937 0.19707237 -0.18175884 -0.017167548 0.04618526 -0.050757807 0.06447534 0.090884134 -0.22832605 0.13410987 0.010532196 0.03381288 -0.057657097 -0.14652756 -0.084193744 0.11434799 -0.061445028 -0.12754853 0.19998546 -0.17166807 0.033715114 0.13208602 -0.12300489 -0.012503012 -0.08866907 0.082731664 -0.07911037 -0.14711449 -0.11073702 0.050321825 -0.067801066 -0.012388354 0.16307403 0.089383 0.08138789 0.044923056 0.032177757 -0.07771886 -0.09702787 -0.14869383 0.069452405 -0.06975363 -0.06575014 0.07442843 0.08538581 -0.019367982 0.10676474 -0.012804337 0.07376932 0.057090778 0.09475771 -0.035817813 -0.14477302 0.13986139 -0.024833346 -0.120126456 0.11280658 0.079407096 -0.1678077 0.065276965 -0.15432405 -0.055354025 -0.110737026 0.12084147 0.1790674 0.17933969 -0.047078874 -0.005933279 -0.0221345 0.03700337 0.04972805 0.079973094 -0.07563181 0.009649253 -0.03514945 0.20302947 -0.1761731 -0.053308267 -0.007217047 -0.047409914 0.07085654 -0.23636335 -0.1972331 -0.020853471 0.031655014 0.17722109
26 -0.11617826 -0.29140216 0.15229635 0.15156296 0.02808491 -0.16265473 0.20178974 0.0487976 -0.06346232 0.030921962 -0.111089565 0.18190534 0.07135703 -0.17432489 -0.08150396 -0.14719866 -0.030653637 -0.125385 0.06298171 0.0660045 0.14456135 -0.039282266 0.19801347 -0.00489713 -0.01247959 -0.003697511 -0.010820473 -0.009299405 0.027128842 0.19397113 -0.02625918 0.08176381 -0.08475297 0.12192941 -0.13624477 -0.1295186 0.23866889 0.072574146 -0.08896718 -0.16680783 -0.24975577 0.050315287 0.1486017 0.15829735 -0.15283376 0.0372847 0.054174867 -0.06266631 -0.014757217 0.06918233 -0.102221474 0.15942408 0.027303135 -0.015104903 -0.072370775 -0.116474144 -0.10620644 0.055447344 -0.08049775 -0.044434506 0.113614164 -0.11963795 -0.047942095 0.11430066 -0.045838322 -0.15997165 -0.07483865 0.018478941 -0.07615868 -0.099895395 -0.036944933 0.024994291 -0.05574187 0.05113781 0.07560238 0.06053271 0.05113894 0.048512656 0.05802079 0.03911695 -0.06848186 -0.20345795 0.07205872 -0.16121471 -0.04104603 0.23022506 -0.036289215 -0.007944494 0.015403009 -0.059241366 0.05162126 0.11978095 0.06697624 -0.039789822 -0.066040926 0.19037062 -0.07886599 0.0023998513 0.09134457 -0.039443042 -0.18687609 0.048928097 -0.14284533 -0.05292379 -0.02493041 0.117018335 0.22901355 0.13362786 -0.027073884 0.016811049 -0.002177005 -0.030762015 0.018049918 0.049217694 -0.0050451695 -0.008795498 -0.0790448 0.17628703 -0.12975037 -0.0142721655 -0.03014065 -0.10420639 0.030249812 -0.19012418 -0.030918026 0.06079597 -0.034407426 0.08117639
29 -0.10618655 -0.2764886 0.13795498 0.14089872 0.024334893 -0.15940608 0.17955935 0.06505045 -0.045916174 0.028650641 -0.098600335 0.19106294 0.071464434 -0.1704189 -0.068222895 -0.14948201 -0.039595254 -0.13142247 0.07094927 0.05720932 0.13721488 -0.047994386 0.18835601 -0.014289025 0.0045397235 0.007383005 -0.004528524 -0.008003105 0.046151783 0.18488018 -0.024082992 0.07273843 -0.08997901 0.12550062 -0.12272218 -0.12375756 0.22880383 0.065011635 -0.07969306 -0.16383892 -0.23107965 0.0362345 0.1563343 0.16829318 -0.15521464 0.023437086 0.053177964 -0.06683741 0.0030456532 0.07000479 -0.13013989 0.14384305 0.023683121 0.002235751 -0.0781437 -0.11332815 -0.09925108 0.07445024 -0.07474235 -0.05649803 0.13045405 -0.12870957 -0.041503046 0.11016321 -0.060038235 -0.13017674 -0.08242329 0.027014274 -0.07509939 -0.10118282 -0.053327248 0.02892041 -0.054082293 0.045976397 0.09116138 0.07862592 0.06863485 0.0491258 0.061266016 0.020973982 -0.07581978 -0.19335483 0.0685502 -0.14711717 -0.040759813 0.20221758 -0.010851372 -0.017320693 0.03462014 -0.052411776 0.055601016 0.1061826 0.06352754 -0.04568508 -0.081705384 0.18534689 -0.07678231 -0.019923802 0.09401272 -0.017051892 -0.19284229 0.051622793 -0.14529753 -0.05421575 -0.04535979 0.11966395 0.22006537 0.14807454 -0.038568325 0.012264176 -0.0009816382 -0.016453663 0.023142925 0.055813707 -0.021400513 -0.010602817 -0.076545 0.18579155 -0.15008925 -0.017736452 -0.029077942 -0.09723422 0.038610935 -0.20315093 -0.057657234 0.045060694 -0.016318442 0.09932419
25 -0.12280038 -0.2972127 0.14685613 0.15109575 0.021407755 -0.16418746 0.19549884 0.051321715 -0.05011063 0.030785704 -0.10878513 0.18742067 0.069383904 -0.16825326 -0.07845291 -0.15414791 -0.03252669 -0.13380165 0.06826453 0.06826423 0.14536177 -0.044304423 0.19753312 -0.004674616 -0.002996041 -0.0026824786 -0.0055464273 -0.008394122 0.03046365 0.19187982 -0.027448572 0.08115192 -0.085053466 0.123287976 -0.13557342 -0.1267137 0.23228812 0.077848285 -0.089975454 -0.17079562 -0.25295773 0.050994374 0.15180168 0.15954643 -0.15298301 0.033987418 0.060414895 -0.05941119 -0.004465116 0.0662313 -0.11999768 0.16030723 0.029578902 -0.008126273 -0.07691036 -0.11798292 -0.10403952 0.053637993 -0.0780856 -0.04557855 0.117679454 -0.1201611 -0.042601038 0.11256688 -0.0570746 -0.15619195 -0.07946334 0.029039761 -0.08317409 -0.10366107 -0.04329362 0.024705308 -0.052651964 0.053352553 0.07774525 0.06442724 0.05557663 0.05243588 0.062576346 0.032604594 -0.06897491 -0.20665486 0.073370226 -0.16401838 -0.04433713 0.22083291 -0.027352206 -0.013902976 0.017825581 -0.062103327 0.050289348 0.1178398 0.07073172 -0.048432063 -0.07449282 0.19523789 -0.07752868 -0.004702674 0.092602685 -0.030750882 -0.19680576 0.052734412 -0.15273508 -0.054229923 -0.029561218 0.1199843 0.22797605 0.14119388 -0.029927678 0.01117005 -0.001805593 -0.026010446 0.021102067 0.047278464 -0.013168445 -0.008263266 -0.0752923 0.18116571 -0.13778666 -0.013340629 -0.028311115 -0.09711191 0.032108165 -0.19505651 -0.042280395 0.057055295 -0.03554669 0.091310784
31 -0.10883803 -0.28914157 0.1510837 0.15159933 0.023004195 -0.16717643 0.18944177 0.0647792 -0.058863908 0.03156629 -0.10486618 0.19967243 0.080115765 -0.18197009 -0.073233195 -0.1604886 -0.04107347 -0.12977149 0.07420909 0.060723763 0.14342262 -0.04782248 0.2004688 -0.0106035415 0.006291031 0.010371416 -0.00060718687 -0.001778501 0.044212498 0.19571786 -0.029367797 0.080470294 -0.101768024 0.13644828 -0.121706545 -0.12485249 0.23374431 0.06530461 -0.08151462 -0.16996863 -0.24443921 0.041864254 0.16362306 0.174635 -0.16214873 0.022822792 0.053976275 -0.072604015 0.0019180322 0.07404479 -0.13371332 0.15199919 0.028106784 0.000656442 -0.077232204 -0.12448798 -0.1065298 0.070562966 -0.08397977 -0.06156918 0.13336071 -0.1274593 -0.046277896 0.108845964 -0.05956138 -0.14001949 -0.08660228 0.025477648 -0.08286593 -0.1079014 -0.052519567 0.028774533 -0.05359337 0.047983117 0.095654376 0.07883978 0.07307736 0.05135752 0.06887874 0.028856637 -0.07555255 -0.21051082 0.06713596 -0.15759666 -0.041266687 0.21927361 -0.019703157 -0.017988397 0.032500677 -0.056110412 0.05207494 0.11928025 0.07000555 -0.053247534 -0.0952658 0.19530001 -0.08463057 -0.020195412 0.09944643 -0.014883802 -0.20844436 0.050767664 -0.15319201 -0.06304507 -0.04979048 0.1280171 0.24052893 0.1624412 -0.04069809 0.011374858 -0.006700264 -0.023412425 0.024113981 0.057114553 -0.016805392 -0.0054477346 -0.08462467 0.20326494 -0.16579716 -0.013106383 -0.03365375 -0.107167885 0.041395087 -0.21795967 -0.06069456 0.051762134 -0.019152446 0.10591259
16 -0.10486908 -0.27709794 0.14126512 0.14383829 0.02193994 -0.15614036 0.18564968 0.066655114 -0.04923909 0.029120453 -0.10416826 0.19178882 0.07122535 -0.16792631 -0.06553045 -0.1518227 -0.040760167 -0.13305415 0.065747425 0.054537013 0.13642637 -0.044372912 0.19697641 -0.015018534 0.0075458935 0.009475798 -0.0037549003 -0.006717879 0.04190492 0.1833026 -0.030706184 0.0764195 -0.09419834 0.1222287 -0.11613497 -0.121436894 0.22805701 0.058977474 -0.08416848 -0.16287363 -0.23564862 0.03934468 0.16038504 0.17031658 -0.15193489 0.019537086 0.057284683 -0.063955374 0.0009010946 0.07248205 -0.122812584 0.1447969 0.026916424 0.0043475954 -0.07185965 -0.11729393 -0.103867896 0.07004744 -0.07355377 -0.0617956 0.12882717 -0.12564705 -0.043229457 0.10434776 -0.05295311 -0.13262466 -0.08047576 0.031708192 -0.079485975 -0.10906268 -0.047637306 0.0259071 -0.049758174 0.041187022 0.093937226 0.074146055 0.0700232 0.046791624 0.057988375 0.025631523 -0.06925084 -0.20282793 0.06736675 -0.14815067 -0.04166061 0.21062984 -0.013026074 -0.011201268 0.034710817 -0.049146987 0.052052066 0.11272125 0.060573604 -0.04713631 -0.08747913 0.18826094 -0.07259075 -0.025939573 0.09327785 -0.020414136 -0.19079249 0.04976125 -0.1420495 -0.06056837 -0.04952806 0.11764721 0.22602448 0.15247236 -0.03895493 0.01244421 -0.0026485573 -0.013940835 0.022465333 0.05936479 -0.015754292 -0.0040395805 -0.07909237 0.19543964 -0.15574758 -0.018473364 -0.030246537 -0.09717617 0.04124131 -0.20560934 -0.056446236 0.04745611 -0.012836826 0.107355714
10 -0.09415196 -0.27102527 0.12639053 0.13890497 0.020799818 -0.14848137 0.17503308 0.08111273 -0.03235535 0.019603742 -0.09280088 0.1940612 0.07154847 -0.16426039 -0.058542985 -0.14606807 -0.037109002 -0.13340566 0.06717616 0.052099366 0.13347977 -0.050630584 0.18890291 -0.013858884 0.019587152 0.011168767 -0.0052103424 -0.011639793 0.049301516 0.17568995 -0.030294385 0.063389696 -0.089895986 0.12111896 -0.11078064 -0.12197793 0.2169748 0.05309795 -0.08347219 -0.15881234 -0.22251661 0.019071706 0.16406763 0.17930251 -0.15344107 0.017950468 0.059407827 -0.0667845 0.020970918 0.06886257 -0.14215668 0.13852786 0.025314732 0.010699776 -0.07444064 -0.1186932 -0.09793715 0.074393295 -0.07187493 -0.06690735 0.14106038 -0.1251062 -0.03546682 0.110356905 -0.06261645 -0.10597733 -0.08367939 0.035662886 -0.07901677 -0.11349197 -0.057821978 0.03103988 -0.048043087 0.03462209 0.105718076 0.0819675 0.070632875 0.047900207 0.05287585 0.0070109568 -0.08357552 -0.19625543 0.06760185 -0.12900403 -0.046805397 0.18739834 0.0025561757 -0.020463826 0.045304988 -0.04390933 0.064704776 0.10320402 0.071771845 -0.046824142 -0.09960394 0.1831502 -0.066483505 -0.047883373 0.09695532 0.001431733 -0.18786412 0.045187663 -0.14463603 -0.055710882 -0.061351344 0.11760241 0.22035937 0.16219974 -0.04599433 0.0108215995 0.0010104345 -0.009913085 0.03312478 0.061640933 -0.02488738 -0.003438989 -0.06876851 0.19457638 -0.16207664 -0.026175175 -0.026402771 -0.09064848 0.05083194 -0.20571949 -0.07762351 0.03119463 -0.0017963336 0.116432965
22 -0.070225686 -0.2333405 0.09658563 0.108545296 0.005213357 -0.1464397 0.12095866 0.11057214 0.016797965 0.0017507221 -0.061718185 0.1894428 0.08219116 -0.14314944 -0.022706171 -0.14290538 -0.04725899 -0.15770002 0.07830711 0.038735706 0.11254731 -0.06342865 0.15823263 -0.017766329 0.06548746 0.031096213 -0.01656286 -0.014878872 0.069849566 0.14061287 -0.024700485 0.050847087 -0.086037025 0.090071425 -0.079466306 -0.12526375 0.18266393 0.04622829 -0.06566602 -0.14274468 -0.17504528 -0.036054205 0.16119552 0.19439778 -0.17122854 -0.0075765783 0.040890418 -0.051956825 0.05622136 0.083572835 -0.21051593 0.12482794 0.008245131 0.035039626 -0.06640307 -0.13704829 -0.08593234 0.11237579 -0.06864758 -0.10957432 0.18695755 -0.15420426 0.013043711 0.12398205 -0.10706323 -0.032420218 -0.09203308 0.07151221 -0.07657627 -0.12814239 -0.10021339 0.048416257 -0.05896181 0.002685714 0.14870998 0.09611109 0.08069902 0.04968907 0.048591487 -0.053716134 -0.09369436 -0.16338499 0.07106484 -0.09005478 -0.055582393 0.10718567 0.06429687 -0.02794783 0.09393986 -0.021572502 0.06973411 0.07003248 0.08379025 -0.051381104 -0.13454758 0.14954525 -0.038254883 -0.09795707 0.10872324 0.055519037 -0.17587693 0.058909554 -0.14827871 -0.0485641 -0.0933885 0.12665275 0.19195503 0.18172988 -0.04585796 -0.0013945085 -0.014536555 0.025211362 0.048669107 0.084333375 -0.064753406 0.000983837 -0.050598774 0.20200159 -0.18169641 -0.049509797 -0.0109791085 -0.06594286 0.0661667 -0.23103528 -0.1615879 -0.008976959 0.027576983 0.15909179
19 -0.10743761 -0.288989 0.15031745 0.14631173 0.022066584 -0.15837614 0.18899 0.06345062 -0.051435556 0.028958967 -0.10898394 0.19369721 0.071762234 -0.17231148 -0.07455801 -0.15129955 -0.040356297 -0.13457657 0.073100805 0.06444867 0.14123793 -0.049239565 0.20215133 -0.009172969 0.0040891613 0.012289466 -0.006370198 -0.006607257 0.04028468 0.1903699 -0.029273337 0.078669645 -0.0913892 0.123123996 -0.1217222 -0.12479499 0.22387633 0.066313855 -0.08189106 -0.16050626 -0.2388201 0.038212936 0.1565629 0.16702682 -0.14913681 0.02502754 0.0593369 -0.06845206 -0.00070544257 0.06847184 -0.12263083 0.14537132 0.02253541 -0.0035747564 -0.067649 -0.11433246 -0.10785987 0.06647518 -0.07349201 -0.054759312 0.12111486 -0.12154391 -0.039535936 0.11170751 -0.052425712 -0.14248058 -0.07588196 0.027419137 -0.082524896 -0.10728728 -0.045087464 0.028901923 -0.050236285 0.04680899 0.08513505 0.06894195 0.06753631 0.051689908 0.057323866 0.0266952 -0.07251335 -0.2046563 0.06878147 -0.15734011 -0.044979747 0.21563275 -0.016548168 -0.011319781 0.02523902 -0.054258704 0.053690586 0.118416846 0.07011193 -0.04558608 -0.08793276 0.19333382 -0.07690853 -0.015768101 0.095081426 -0.02390992 -0.19312972 0.05055121 -0.15019858 -0.0596286 -0.042549845 0.12267037 0.22741929 0.15121509 -0.039367944 0.009985259 -0.0024147974 -0.020012159 0.024586422 0.051242314 -0.009999047 -0.0046003773 -0.07461632 0.19228514 -0.1538087 -0.0101064155 -0.03134826 -0.10156278 0.037244182 -0.20253138 -0.055304937 0.04953086 -0.022189356 0.09571309
27 -0.10915782 -0.29876378 0.14496729 0.1507759 0.026487514 -0.1609491 0.19823755 0.07069323 -0.059644718 0.031361166 -0.111594714 0.1928785 0.07183232 -0.1728134 -0.074499875 -0.15797694 -0.032298096 -0.13010816 0.069282755 0.05739723 0.14436747 -0.043621894 0.20386323 -0.011433869 0.0005147394 0.0016026907 -0.0076364786 -0.0044341814 0.037640277 0.19552758 -0.02725644 0.07292699 -0.09505019 0.12691605 -0.12080227 -0.12539972 0.22953947 0.06399237 -0.08834739 -0.16653073 -0.24532343 0.0445675 0.1589003 0.16957153 -0.15112127 0.028136687 0.062148824 -0.069875576 -0.00074656674 0.07084476 -0.11598628 0.15023838 0.026423475 0.0019868303 -0.075505905 -0.12078697 -0.10664453 0.066470034 -0.070154205 -0.05191159 0.119512744 -0.11482731 -0.049838398 0.107136026 -0.04760091 -0.1428294 -0.08334105 0.027151896 -0.077856526 -0.10302865 -0.049004793 0.030410403 -0.049738586 0.043989502 0.0815747 0.06962523 0.06708833 0.04809759 0.059309557 0.03436863 -0.07524737 -0.20748204 0.06740183 -0.15054116 -0.043908577 0.21994135 -0.016269144 -0.015305677 0.02087227 -0.052046165 0.050792716 0.110936075 0.06408383 -0.047520682 -0.0856417 0.19174133 -0.077999294 -0.019541796 0.09676796 -0.028249534 -0.19844028 0.047320873 -0.14162613 -0.06308231 -0.040038306 0.120175466 0.23378633 0.14605299 -0.043001667 0.015277338 0.0018143094 -0.021520471 0.022082383 0.051175427 -0.01006469 -0.0097198505 -0.07946368 0.18997866 -0.1554998 -0.0140413055 -0.033275824 -0.097100794 0.04318452 -0.20227078 -0.051121373 0.05393745 -0.016285365 0.09613936
23 -0.108019486 -0.2865623 0.14122397 0.15016423 0.02179808 -0.1601191 0.18868744 0.077515095 -0.043553047 0.024779012 -0.10479417 0.1962488 0.07573635 -0.1772832 -0.07132316 -0.15151305 -0.03812659 -0.13288178 0.07300879 0.061282232 0.1365167 -0.050509572 0.19312133 -0.011441216 0.011492153 0.008236887 -0.010064748 -0.011075285 0.041753057 0.18988937 -0.028742993 0.07578054 -0.09190694 0.122212134 -0.121410094 -0.12631135 0.22651513 0.05968923 -0.08517226 -0.1587643 -0.23348042 0.03210235 0.16074611 0.17364234 -0.1526124 0.01816418 0.05526962 -0.062575124 0.0036536066 0.07039417 -0.12959224 0.14358632 0.02750055 0.00062549155 -0.0746671 -0.12351528 -0.1058827 0.07088446 -0.07390082 -0.06376007 0.13071588 -0.12531313 -0.036142062 0.111320004 -0.055119403 -0.1286555 -0.07816783 0.035038102 -0.07716767 -0.10470364 -0.052234486 0.030568203 -0.048789773 0.043218493 0.089621596 0.07664298 0.06880288 0.050240222 0.062420193 0.02083101 -0.07073548 -0.2042964 0.07259832 -0.14674763 -0.045325417 0.20843051 -0.011226614 -0.013792218 0.03329861 -0.051311128 0.057957947 0.11309026 0.06397833 -0.04792063 -0.095172875 0.18572512 -0.07080171 -0.029541567 0.09365105 -0.009439705 -0.1933581 0.04776709 -0.1447738 -0.06077419 -0.049647868 0.11675981 0.2223309 0.15137707 -0.03746967 0.012594484 -0.004958743 -0.016464343 0.026277995 0.055743974 -0.021686444 -0.0066454466 -0.07730433 0.19506492 -0.15562491 -0.018241053 -0.026435586 -0.093528725 0.041937973 -0.20662689 -0.06396486 0.039706282 -0.0123833185 0.10643102
21 -0.11160401 -0.28070068 0.14709228 0.1443534 0.021157166 -0.15908806 0.18834694 0.06485562 -0.05457688 0.034417648 -0.10665921 0.19001834 0.07322442 -0.17755665 -0.073292874 -0.15214477 -0.034144804 -0.12698802 0.072034456 0.058963463 0.14021596 -0.04507649 0.19768016 -0.0102190925 0.0048893513 0.006399301 -0.0015396187 -0.0048788143 0.04051 0.19142692 -0.024780918 0.0741595 -0.09378863 0.12752983 -0.119830064 -0.12374062 0.2239756 0.065648645 -0.0798331 -0.15571442 -0.23933914 0.044681977 0.15418331 0.1657944 -0.15336783 0.023883069 0.058472216 -0.065894574 0.0031601351 0.068909794 -0.11314736 0.1449072 0.028680561 -0.00030239316 -0.07374327 -0.11477166 -0.10409871 0.0625296 -0.07803634 -0.05096018 0.11641339 -0.116092384 -0.044822432 0.10776193 -0.044135805 -0.13805392 -0.07756687 0.020815264 -0.07759732 -0.1047757 -0.04181344 0.023442376 -0.048915718 0.04837754 0.087367505 0.07096629 0.061599784 0.04484991 0.061893392 0.033224978 -0.07182983 -0.1984158 0.06420385 -0.15235743 -0.044125047 0.20942673 -0.020720461 -0.0150962705 0.028759018 -0.052864406 0.053689618 0.112967834 0.059331227 -0.042708267 -0.08528418 0.18432042 -0.078579515 -0.014192675 0.09312974 -0.022163816 -0.19226137 0.045208946 -0.14161783 -0.054070175 -0.0390123 0.11985911 0.22334407 0.1424312 -0.041004013 0.009529603 0.0045745154 -0.017197844 0.021771654 0.055039447 -0.0142839905 -0.0042661605 -0.08126745 0.18498752 -0.14733574 -0.007954252 -0.030653533 -0.09956593 0.039982095 -0.19868223 -0.047055937 0.049950577 -0.012372599 0.09139321
13 -0.04211808 -0.19532473 0.06446684 0.082503974 -0.00927482 -0.13632068 0.080529906 0.14159045 0.06990448 -0.012531169 -0.033944596 0.18604131 0.08778189 -0.12763943 0.0077568293 -0.13887244 -0.053759035 -0.17631388 0.07527435 0.017929493 0.09460304 -0.07701098 0.1207836 -0.022094512 0.1089537 0.03987544 -0.019360544 -0.0125339795 0.085999645 0.103881605 -0.026401505 0.03746989 -0.078488536 0.06032378 -0.05244132 -0.12462481 0.16187154 0.04180125 -0.04977408 -0.1265913 -0.13350634 -0.082145125 0.16952416 0.21226016 -0.1867366 -0.029617583 0.037967302 -0.04608512 0.08460737 0.10037847 -0.2674229 0.116126336 0.005519517 0.0613248 -0.070376195 -0.15455082 -0.08134779 0.13645956 -0.06253125 -0.14651571 0.23044921 -0.18056643 0.04678667 0.12730028 -0.1365423 0.03342842 -0.0977442 0.09493081 -0.07484827 -0.15339799 -0.13476612 0.05505778 -0.062034022 -0.028772008 0.18649071 0.10287229 0.09388819 0.044102494 0.032425288 -0.11066 -0.103953764 -0.14274667 0.06684072 -0.04696756 -0.06941921 0.04295172 0.119936936 -0.032964237 0.13146694 0.0023162016 0.08367711 0.04078808 0.09318554 -0.050161067 -0.16766778 0.12045566 -0.011865129 -0.16043316 0.111023545 0.11207733 -0.15701199 0.06423797 -0.15416719 -0.048919465 -0.13185918 0.11970104 0.17280659 0.19542447 -0.0509636 -0.014712853 -0.024900205 0.053790428 0.061536722 0.102589294 -0.10110824 0.004475522 -0.033022143 0.21671778 -0.19650964 -0.07610007 -0.00029997923 -0.035779353 0.086317725 -0.24880376 -0.23839608 -0.044513438 0.058365863 0.20342867
18 -0.074093856 -0.23324889 0.096772954 0.10992146 0.010252415 -0.14423499 0.122840464 0.105453745 0.011514143 0.010392385 -0.0658506 0.19063538 0.08170356 -0.14270389 -0.029530741 -0.14419964 -0.0453271 -0.14887218 0.06932767 0.043403167 0.11821463 -0.060708556 0.16445385 -0.017438618 0.06266211 0.028965808 -0.0128941415 -0.010269823 0.065815456 0.1451778 -0.024341282 0.057768032 -0.08377128 0.10081605 -0.08377136 -0.12616551 0.19074367 0.05071041 -0.06644013 -0.14213684 -0.19176754 -0.018488346 0.16253562 0.18937889 -0.17429829 -0.0030621267 0.042484775 -0.057654295 0.04912518 0.08301835 -0.2024897 0.12966003 0.017896863 0.034055825 -0.07290744 -0.1353249 -0.09336818 0.10362375 -0.07642813 -0.104301915 0.18605278 -0.16073617 0.003922784 0.12213344 -0.097556815 -0.047273897 -0.08932794 0.06148725 -0.077936925 -0.1257757 -0.096095435 0.044723604 -0.054660145 0.006057442 0.144533 0.09738739 0.088739365 0.052826185 0.051348966 -0.042814095 -0.09516763 -0.16748424 0.07194247 -0.10020811 -0.05691374 0.12800698 0.05419995 -0.025638398 0.081709504 -0.023875741 0.06678756 0.075406544 0.08643943 -0.05172042 -0.13391659 0.15878823 -0.048171997 -0.084817626 0.11068738 0.04639603 -0.1836579 0.060355503 -0.15306312 -0.051995166 -0.08964431 0.12806597 0.20010318 0.17782201 -0.048358936 -0.0031086847 -0.019809805 0.014511007 0.04032653 0.076065466 -0.054574575 -0.0015694121 -0.05320815 0.20043029 -0.17624226 -0.045693107 -0.01593194 -0.075155005 0.060711674 -0.23166613 -0.14704075 -0.0055797845 0.015239089 0.1491203
15 -0.116441846 -0.2958581 0.15200564 0.14901201 0.026344234 -0.15888667 0.19740358 0.062433947 -0.05503311 0.029192662 -0.10684951 0.19235238 0.07280844 -0.17446114 -0.073208414 -0.15304549 -0.038196027 -0.13122112 0.06721519 0.05715444 0.14437686 -0.043986034 0.20147341 -0.012617982 -0.0019415638 0.005412816 -0.0062364032 -0.006838299 0.040638134 0.19116665 -0.029777532 0.079987034 -0.08770819 0.12672566 -0.12203274 -0.1216004 0.22505514 0.064330615 -0.080054976 -0.15899646 -0.24159361 0.04285596 0.15550889 0.16520816 -0.14833069 0.027770288 0.053843644 -0.0679592 -0.0016456699 0.06702341 -0.118405856 0.14753802 0.02602214 -0.0003384211 -0.07759122 -0.120036 -0.109465726 0.06178131 -0.07324508 -0.048694976 0.1236813 -0.11494668 -0.046345443 0.1045884 -0.049360756 -0.1381633 -0.07605261 0.022983335 -0.07360951 -0.09825841 -0.042337067 0.025093837 -0.049037196 0.04638305 0.0798375 0.07145469 0.06547747 0.049824256 0.057424877 0.027401103 -0.07171885 -0.200996 0.068421714 -0.15624373 -0.044030614 0.21444671 -0.023473982 -0.016716218 0.025668468 -0.05127902 0.055690393 0.118447684 0.06759878 -0.048685245 -0.08531528 0.19261865 -0.07565016 -0.011240446 0.09433543 -0.020478368 -0.18968384 0.046202518 -0.1481824 -0.05669664 -0.03828164 0.115252815 0.23026286 0.14810507 -0.03884692 0.009639574 -0.00074367767 -0.022740915 0.022126457 0.050673757 -0.014093974 -0.004122516 -0.07515007 0.19132864 -0.15299045 -0.009712726 -0.027923698 -0.10336355 0.043286525 -0.1932103 -0.05220944 0.050209437 -0.017981526 0.09679232
17 -0.054371256 -0.20600186 0.07219837 0.09572967 -0.0074837725 -0.13710395 0.09406647 0.13396361 0.06488962 -0.009418667 -0.03534697 0.19081241 0.0813177 -0.11936261 -0.0032460485 -0.1344579 -0.04902514 -0.17962128 0.07246023 0.028554516 0.09641176 -0.07881079 0.1370312 -0.020654157 0.10887293 0.03540662 -0.024523566 -0.018889869 0.07616456 0.11552452 -0.023534937 0.041904718 -0.07374776 0.06367992 -0.059437644 -0.12678549 0.16896977 0.046300158 -0.058432564 -0.13020034 -0.15419921 -0.07009485 0.16782597 0.20720094 -0.18663904 -0.02767298 0.04539031 -0.04670567 0.07754545 0.0998946 -0.25236905 0.12362879 0.0046299673 0.044240043 -0.060155112 -0.15553032 -0.08896674 0.13374443 -0.0645527 -0.14224344 0.22211397 -0.1814291 0.043966036 0.13215551 -0.13367692 0.0130095575 -0.09758489 0.092580356 -0.0828136 -0.15104803 -0.12555663 0.05433131 -0.06639039 -0.019395493 0.18374103 0.10544936 0.09070689 0.04644205 0.036851346 -0.096359655 -0.10019032 -0.14337984 0.07486368 -0.05465485 -0.06939052 0.05927598 0.10548443 -0.030142935 0.12448615 -0.008049255 0.07096048 0.050918978 0.09833515 -0.03609931 -0.16094725 0.13395976 -0.013260047 -0.13635518 0.119334064 0.09961937 -0.16605875 0.06707081 -0.15957771 -0.049930386 -0.12323251 0.1267577 0.17832951 0.19224706 -0.05020308 -0.004842151 -0.02439465 0.047442283 0.05866696 0.09236317 -0.084435634 0.007869517 -0.035257787 0.21580803 -0.19279838 -0.06694928 -0.0008249574 -0.042224437 0.079209216 -0.24601811 -0.22560859 -0.03676734 0.043999445 0.1928338
12 -0.085763454 -0.24859479 0.11059409 0.11727169 0.009370504 -0.14843437 0.13914718 0.09431221 -0.004842229 0.012910642 -0.0699986 0.19106121 0.07642525 -0.14762673 -0.03904379 -0.14044096 -0.045255337 -0.144799 0.07364959 0.039363 0.11916923 -0.05461468 0.16809778 -0.01866012 0.043904644 0.019872664 -0.010831114 -0.008821009 0.05969236 0.15129286 -0.024059804 0.060366597 -0.08654981 0.099410914 -0.088917345 -0.11696208 0.19204213 0.05333544 -0.06778943 -0.14035071 -0.19108069 -0.010587319 0.15994166 0.17896037 -0.16368043 0.0032250097 0.048474856 -0.057560876 0.03306435 0.07649374 -0.17845802 0.13065942 0.015157836 0.020754 -0.07285017 -0.13139568 -0.09105775 0.09516192 -0.070717864 -0.08705929 0.16550584 -0.14044954 -0.008052149 0.11703935 -0.090094104 -0.06301061 -0.081281066 0.054300215 -0.073881924 -0.11570973 -0.0768848 0.041564386 -0.052477293 0.016863797 0.1246058 0.08584386 0.07971783 0.049924724 0.04941821 -0.024288563 -0.08398099 -0.17007054 0.06369764 -0.10613922 -0.053024378 0.14210477 0.036033206 -0.021586774 0.068316095 -0.033349864 0.062334377 0.08558691 0.07531254 -0.04748019 -0.11460175 0.1548154 -0.04463468 -0.07558319 0.09949346 0.033207983 -0.17643708 0.049321484 -0.1430396 -0.050727326 -0.07556649 0.11413049 0.19665495 0.16319203 -0.03913901 -0.00043193516 -0.015487188 0.010235031 0.03884386 0.07272812 -0.045725774 0.0015613252 -0.055832814 0.19488959 -0.16798249 -0.040895395 -0.018699473 -0.074606195 0.05723611 -0.209894 -0.12564963 0.007680186 0.007961421 0.13509987
